// Paste YOUR model_weights.json contents here, replacing this placeholder.
export const WEIGHTS = { "W1": [[0.35294052958488464, -0.5069378614425659, 0.7661234736442566, 0.26862388849258423, -1.2671222686767578, -0.8343780636787415, -2.8096795082092285, -0.15918637812137604, 0.3006846010684967, 0.44783860445022583, -1.1881269216537476, -0.16165472567081451, 2.924187421798706, -0.7728147506713867, 0.3771694004535675, 0.33573731780052185, 0.24332818388938904, 0.007055503316223621, -0.3801615834236145, -0.14325036108493805, -0.7324565052986145, -0.4894150495529175, -1.3993797302246094, 0.44940030574798584], [0.988579511642456, 3.4449949264526367, 0.5943446755409241, -0.2885865867137909, 0.035008084028959274, -0.1279335767030716, 0.04657698795199394, -0.15502069890499115, 0.22307507693767548, 0.04277458414435387, 0.982702374458313, 0.5025837421417236, -0.026509204879403114, -0.7991153001785278, -0.12894614040851593, -0.7490420341491699, -2.8316330909729004, 0.10337381064891815, -0.840457022190094, 0.041772905737161636, -0.10574860870838165, -0.09818875044584274, -0.25152283906936646, 1.2066899538040161], [0.9434064030647278, -0.08451379090547562, 0.17607450485229492, 1.3164522647857666, 0.48540452122688293, 3.092897653579712, 0.3289185166358948, 0.3420429825782776, -2.602025032043457, -0.28137341141700745, -1.0873583555221558, -0.18226873874664307, -0.6061659455299377, -0.8103243112564087, 1.4049915075302124, -0.27086740732192993, -0.0978635773062706, 0.8347331881523132, -0.8128842115402222, 0.10153897106647491, -0.5014477372169495, -0.4147647023200989, -0.28824350237846375, 0.30030953884124756], [-0.5501099824905396, -0.274831086397171, 0.7102445960044861, -0.20494279265403748, 0.03990861400961876, -0.7801603078842163, -0.14343732595443726, 0.25851717591285706, -0.7910879254341125, 0.46388277411460876, 0.655412495136261, -0.8506467342376709, -0.4873259961605072, -0.3023985028266907, -1.370290756225586, 0.8327451944351196, 0.6939553618431091, -0.5698264837265015, 0.3192039430141449, -0.217157244682312, -0.4284599721431732, 2.792274236679077, 0.09204497933387756, -0.10598745197057724], [0.49201223254203796, -0.20199841260910034, -3.092834949493408, -1.4601622819900513, -0.9721876978874207, -0.5414577126502991, -0.3757111132144928, 0.5104184746742249, 0.24824748933315277, 0.11723614484071732, 0.869581401348114, -0.41408780217170715, -0.541149914264679, -0.4309811592102051, -0.5925273895263672, -0.49790945649147034, 0.4415111243724823, 1.2254385948181152, -0.11519131064414978, 2.9937245845794678, -0.24283434450626373, -0.3350371718406677, 0.837212860584259, -0.262684166431427], [-0.379189670085907, 0.2721228301525116, -0.11326906830072403, 0.4656285047531128, 1.095246434211731, -0.6347392797470093, 0.30985793471336365, 0.569914698600769, -0.3898578882217407, 0.5110439658164978, 0.6219085454940796, -0.5061367750167847, -0.8712643384933472, -0.3500678837299347, 0.22686655819416046, -1.0940567255020142, 0.4464479386806488, -0.8630719184875488, -0.27842265367507935, -0.002098547527566552, 3.0875096321105957, -0.4731144309043884, 0.45731112360954285, -0.45452141761779785], [-1.6277053356170654, -0.7376731634140015, 0.32907170057296753, -0.30961209535598755, -0.7519741058349609, -0.41716960072517395, 0.8157766461372375, 0.04792372137308121, 0.4529271125793457, 0.27231067419052124, -0.4926615357398987, -0.7112703919410706, -0.29137811064720154, 2.9980111122131348, 0.08043882995843887, 1.191437840461731, 0.03220014646649361, 1.2198489904403687, -0.038584157824516296, -0.3280487060546875, -0.24538704752922058, -0.31189313530921936, -0.16648471355438232, -2.226933002471924], [-0.35404977202415466, -0.38608527183532715, -0.056319721043109894, -0.7535834312438965, -0.2885628342628479, 0.015590713359415531, 0.4893760681152344, -2.6548893451690674, 0.8613863587379456, 0.11907757073640823, 0.39953869581222534, 0.02468153089284897, 0.27863234281539917, -0.5881750583648682, 0.5178786516189575, -0.05700184032320976, -0.17848724126815796, -0.17463265359401703, 2.4306704998016357, -0.20321959257125854, 0.1716422438621521, 0.043375104665756226, 0.03999287635087967, 0.39427363872528076], [-0.9816519618034363, -0.05564241111278534, -0.338914692401886, 0.25919485092163086, 0.8134244680404663, -0.27066588401794434, 1.1709364652633667, 0.5601405501365662, 0.6603972315788269, -3.031193733215332, -0.5636231303215027, 2.783038854598999, -0.22131595015525818, -0.714588463306427, 0.6427891254425049, 0.31176355481147766, -0.5772207379341125, -0.9170247912406921, -0.6940016746520996, -0.01224412303417921, -0.2189195305109024, -0.8906711339950562, 1.3320786952972412, -0.5608405470848083], [-0.06365126371383667, 0.007615840062499046, 0.2879459857940674, 0.0969863310456276, 0.08945973962545395, -0.17238165438175201, 0.08001319319009781, 0.02646208554506302, 0.1107385903596878, 0.1717722862958908, 0.0862661749124527, -0.05615746229887009, -0.043717704713344574, -0.2813187539577484, 0.2962631285190582, 0.24873818457126617, 0.17261625826358795, 0.05844208970665932, -0.048537034541368484, -0.05162791535258293, -0.035748641937971115, -0.18910114467144012, -0.11010365933179855, 0.24803034961223602]], "b1": [-0.4332760274410248, 0.06456755101680756, -0.005618893541395664, -0.019918393343687057, -0.3802609145641327, 0.05128554627299309, -0.286239892244339, -0.26894962787628174, 0.32125040888786316, -0.42235907912254333, -0.2125161588191986, 0.11896767467260361, 0.03113469108939171, 0.0861443504691124, 0.14316733181476593, 0.3890146315097809, -0.19642579555511475, 0.9182295799255371, -0.14461387693881989, -0.038007814437150955, -0.09895071387290955, -0.15903133153915405, -0.13715215027332306, 0.010165841318666935], "W2": [[0.21427716314792633, 0.8101822137832642, -0.7839659452438354, -0.5936037302017212, -1.0190138816833496, 0.11407212913036346, 0.2684972584247589, 1.0579861402511597, 0.8601961135864258], [0.5103326439857483, -3.024245500564575, 0.520199179649353, 0.20504945516586304, 0.12250000983476639, 0.16198109090328217, 0.7487896680831909, 0.05202316492795944, 0.37119895219802856], [0.44621217250823975, -0.15840475261211395, 0.0838610976934433, 0.20699457824230194, -2.758305549621582, -0.01721464842557907, 0.8912397027015686, -0.2550959587097168, -0.2087278515100479], [0.0773984044790268, 1.127403736114502, -0.062180325388908386, -0.6077706813812256, -0.4279767870903015, -0.1541600227355957, -1.3689498901367188, 0.8525909185409546, -0.2725923955440521], [-1.4698333740234375, 0.07911878824234009, 0.07578406482934952, 0.6224032044410706, 0.16904816031455994, 1.4964680671691895, -0.6632535457611084, -0.5920929908752441, 0.47793450951576233], [0.17071260511875153, -0.08905847370624542, -3.51914644241333, 1.2074244022369385, 0.34645113348960876, -0.04817334935069084, 0.1924685835838318, 0.10182174295186996, 0.10068938881158829], [-2.9448938369750977, 0.10865670442581177, 0.5179904103279114, -0.38218382000923157, 0.05402097478508949, -0.047316741198301315, 0.6689631342887878, 0.7147732973098755, 0.9575703144073486], [-0.2418752908706665, 0.21013814210891724, -0.363504022359848, -0.3119677007198334, 0.49655628204345703, 0.12382562458515167, 0.05263465270400047, -3.171487331390381, 0.118259496986866], [0.3611069321632385, 0.10494108498096466, -1.9736138582229614, -0.932619035243988, -0.19304057955741882, 0.24180029332637787, 0.16115029156208038, 0.3213513493537903, 0.818983793258667], [-0.092072993516922, 0.5906059145927429, -0.16116923093795776, 0.49352189898490906, 0.10750173032283783, 0.5417588949203491, 0.5996527075767517, 0.16585417091846466, -3.8675835132598877], [-1.3746932744979858, 0.5140910148620605, -1.3250689506530762, 0.8618826866149902, 0.7862547039985657, 0.2239912748336792, -0.5213034749031067, 0.23661048710346222, -0.11881325393915176], [0.6611246466636658, -0.007437089458107948, 0.5174999833106995, 0.5287427306175232, 0.6886273622512817, -0.2708612382411957, -0.1112990751862526, 0.1687459498643875, -3.4263598918914795], [-3.6440317630767822, 0.05813620984554291, 0.26438871026039124, 0.4931953251361847, 0.4452964961528778, 0.12943235039710999, 0.10468248277902603, -0.08743448555469513, 0.09287753701210022], [0.7255254983901978, 0.387507826089859, 0.2717593312263489, 0.7779350280761719, 0.12807698547840118, 1.2090442180633545, -4.255922317504883, 0.48534050583839417, 0.21850106120109558], [0.8287947773933411, -0.3721907436847687, 0.6080256700515747, -1.7032980918884277, -0.41571301221847534, 0.925709068775177, 0.36212262511253357, -0.47717565298080444, 0.7629868984222412], [0.5173338055610657, -0.09635837376117706, -0.6049048900604248, 0.8391618728637695, -0.21515600383281708, -2.023961067199707, 0.5269046425819397, 0.3660188913345337, 0.1813608855009079], [-0.17060506343841553, -3.3052656650543213, 0.011023294180631638, 0.22502219676971436, 0.5320181250572205, 0.723065197467804, 0.0969344973564148, 0.8635526299476624, 0.25635749101638794], [-0.5135003924369812, -0.011410380713641644, 1.335841178894043, -0.8103905320167542, 0.9847064018249512, -1.0731232166290283, 0.7938646078109741, -0.4970398545265198, -0.6271790266036987], [0.5031459927558899, -0.11128479242324829, 0.7391698956489563, 0.2633269429206848, -0.41474252939224243, -0.04322870820760727, -0.07332324981689453, -3.3997387886047363, -0.04890357702970505], [0.41242650151252747, 0.23080876469612122, 0.01896778680384159, 0.555934488773346, -3.9301817417144775, 0.3995022475719452, -0.2587611973285675, 0.5288882255554199, 0.6921133399009705], [0.5700891613960266, 0.4170067608356476, 0.353852242231369, 0.08298877626657486, 0.36788395047187805, -3.7093937397003174, 0.41556516289711, 0.28892236948013306, 0.34533384442329407], [0.22647295892238617, 0.10743235796689987, 0.029569540172815323, -3.828768730163574, 0.3288399577140808, 0.09589710831642151, -0.0121986772865057, 0.041801027953624725, 0.10148348659276962], [0.6221976280212402, 0.6540082097053528, 0.8009653687477112, 0.20914416015148163, -0.9368347525596619, 0.18891949951648712, 0.29607126116752625, 0.24312010407447815, -2.141709327697754], [0.4127432107925415, 0.7217950820922852, 0.8574291467666626, 0.20985379815101624, 1.1282085180282593, -0.5377185940742493, -2.6111361980438232, -0.12708304822444916, 0.4214407503604889]], "b2": [-0.06149205565452576, -0.35953500866889954, -0.44142064452171326, -0.05913251265883446, 0.36628779768943787, 0.8356288075447083, -0.042892929166555405, -0.11310487985610962, 0.4339093565940857], "meta": { "train_accuracy": 0.729, "test_accuracy": 0.6785, "hidden_units": 24 } };

// Activation function: zero out negative numbers, keep positive ones.
function relu(x) {
    return x.map(v => Math.max(0, v));
}

// Converts raw numbers into probabilities that sum to 1.
function softmax(x) {
    const m = Math.max(...x);
    const exps = x.map(v => Math.exp(v - m));
    const sum = exps.reduce((a, b) => a + b, 0);
    return exps.map(v => v / sum);
}

// One layer's computation: multiply inputs by weights, add biases.
function matVecAdd(W, x, b) {
    const out = new Array(b.length).fill(0);
    for (let j = 0; j < b.length; j++) {
        let s = b[j];
        for (let i = 0; i < x.length; i++) {
            s += W[i][j] * x[i];
        }
        out[j] = s;
    }
    return out;
}

// Runs the full model: board + whose turn -> 9 probabilities (one per cell).
export function mlpPredict(board, player) {
    const x = [...board, player];
    const hidden = relu(matVecAdd(WEIGHTS.W1, x, WEIGHTS.b1));
    const logits = matVecAdd(WEIGHTS.W2, hidden, WEIGHTS.b2);
    return softmax(logits);
}
